2.505085628887258609e-01
2.893933081466468216e-01
3.454458531349303141e-01
1.211941059879509744e-02
2.636161955481731295e-02
2.385704584987638488e-01
2.465183764974350489e-03
1.642604817989402888e-01
-2.914774645878985271e-01
3.103111421595050601e-01
-2.540032859451322733e-01
1.375705925879892599e-01
-3.056885077426224617e-01
1.441249568203861187e-01
6.810212135528843913e-02
-1.102546111106357668e-01
9.730475532001967021e-02
-1.148413299947045468e-01
1.284663537132572086e-01
-2.055787941531271867e-01
-3.026748794191304603e-01
-1.231604664547425176e-01
-1.610436781109685078e-02
-1.459490635583675089e-01
-1.561138804059176294e-02
2.088589610022261595e-02
1.718481553055042355e-01
-2.602063137238340707e-01
-4.467230346325914980e-04
-1.905649008446795578e-02
2.441854577075994182e-02
1.698599765206501855e-01
1.611227370674196413e-01
8.404501563208169324e-02
2.888386260207993494e-01
-1.089379718291347415e-01
2.201582828897225008e-01
-3.355263834168821235e-01
3.657511894329501523e-03
3.628881058781377456e-01
8.392645071754861741e-02
-1.339875687361944401e-01
-3.398082463542006493e-01
-2.162750204670425003e-01
-3.979621765360211172e-02
2.832393871302381627e-01
8.450807486596781382e-02
-1.624782546322372789e-01
-1.268315903628058905e-01
-1.981682199634697827e-01
2.424561795358956273e-01
2.145355072209031988e-02
5.949563495814704644e-02
3.837027304870843092e-01
2.122001771427858008e-01
1.670374401322841373e-01
-5.016399686013709447e-01
-1.630133126127956134e-01
-1.295813241745576438e-01
1.623217157529409649e-01
-4.096280653752805700e-01
1.503513108862931658e-01
-1.847564297264260580e-01
5.221700313628602902e-02
3.089875546721710386e-01
-1.523593240124817560e-01
-3.204641614292455531e-01
5.163333624445647085e-03
-2.928333452063755504e-01
-1.902803954436419753e-01
5.741506135371308162e-01
1.534451902516920374e-01
-6.410038979199610132e-02
-1.046227595154372580e-01
-4.478612404668714797e-01
-1.210485512190927204e-01
-2.186029994877413951e-01
4.725862785423972506e-02
-5.479712229054053974e-02
-2.328277840827495115e-01
-5.588428833811804886e-01
-1.686228684857152271e-01
2.462947152171402754e-01
-8.779110563280728696e-02
1.933008457004457004e-01
-4.775541882743966626e-02
-9.111284816285235288e-02
7.745106689818509471e-02
-2.880520097659419743e-01
-1.208306981347626735e-01
-1.641930072653876027e-01
5.784633834869445934e-02
-4.613630063426060052e-02
-2.768089749689892076e-02
7.241843484267837527e-02
8.040860760161730458e-02
1.610296615151545208e-01
1.748068132125243368e-01
1.258530482294331343e-01
-1.663864899682511167e-01
2.939200069799531856e-01
1.157149833296530483e-01
2.405185252100380811e-01
-6.079379815381209806e-03
8.803794344480030121e-02
2.425242021814202342e-01
-2.006602436731660943e-01
-2.048371787446336412e-01
6.202353649160224219e-02
2.437828463429402570e-01
-2.357022587074248388e-01
-1.801839675827040521e-01
1.491887418745478644e-02
-5.396571448782948588e-01
-2.474917441293799369e-01
8.886275438069229926e-02
1.620272659984184627e-01
2.228247451023828984e-01
4.772185360530011300e-01
2.203583841708191271e-03
3.312862417327522846e-01
-2.502847859044393664e-01
-1.104775449692604605e-01
-2.088856286008030361e-01
-3.658149411301046816e-02
1.723832259870295217e-02
5.815574721475435388e-02
-7.155044651107739240e-02
-1.365709752229767870e-01
1.825821963690050231e-01
6.140927054731293994e-02
2.685439435951150200e-01
6.197727756351439909e-03
-2.413884357748493081e-01
2.734799896875119707e-01
-3.559413899974568363e-01
-1.498114885836419052e-01
8.125692702813888668e-02
-2.441608000599795880e-02
1.732639643497599635e-01
2.244138481096318305e-01
-3.767580262485284437e-01
-4.660516253685885457e-02
-1.512421867241963980e-01
4.399727408147753593e-02
1.789427602694730335e-01
2.585256002786934237e-01
4.891069333515944695e-02
4.040434300114723043e-01
3.241117066612033693e-01
3.576093972155820755e-02
-6.351493882664385748e-03
9.311224623753348861e-02
4.257629862059044146e-01
8.952067681862667207e-04
2.037519804748966767e-01
-1.129860542084713954e-01
1.579566302706713887e-01
2.003548999616505677e-01
-3.307224778195681503e-01
-1.522416682041257407e-01
4.180770732604972562e-01
2.293473354834485722e-01
9.320558992847566282e-02
5.789593316412128265e-02
1.782875190007043031e-01
-6.345470801434377472e-02
-2.797004754765802792e-02
3.005790031329004242e-01
1.214152479356263581e-01
-5.756808517950694898e-02
-8.921296929545062537e-02
-1.529313298952376110e-01
1.678025641218749420e-01
-2.687440289849443720e-01
7.132706085211526492e-02
-1.985827496926434454e-02
-1.682004194544053366e-01
-4.935659704326580965e-02
-1.845042117269102000e-01
-7.807585661456398901e-03
1.414574810194172139e-01
3.849037248117236076e-02
-7.101813847853588602e-02
3.804417981876300758e-01
1.511361763918690759e-02
3.439655382977370168e-01
-1.660911094203016136e-01
-2.300328961861719812e-01
-9.930922371658770786e-02
1.378245465985746543e-01
8.962160119253197166e-02
6.449560963950927428e-02
-2.540793936487918403e-01
5.552444478750786366e-02
2.329754176310783742e-01
1.010878014338595088e-01
9.183634788032739305e-03
1.421719637677557324e-01
1.391702646744042426e-01
4.857466988389420592e-01
2.833815448272178350e-02
1.970624060077237338e-01
3.007557479541764570e-02
-3.642124809217059944e-01
-9.043972591395280786e-03
3.855463288395807875e-01
2.469864965523417832e-01
-3.191457567261822836e-01
-9.089723380626066329e-03
-2.008544218627848765e-01
1.277010858616010602e-01
-2.914047071086488597e-02
2.498553410493130067e-01
5.982721796988628438e-02
-5.307660157616601870e-02
-2.344388565552575285e-02
1.579119448899527767e-01
-1.378004294478342995e-01
2.217652523581719465e-02
2.897249102367118190e-01
-9.063551280269725730e-02
-2.069098234074772946e-01
3.927506714229592882e-03
-5.632905154294060024e-02
-2.923848681056570586e-01
1.557490740498369552e-01
3.063947417022813702e-01
1.290421558014341885e-01
3.756540634930441991e-01
-1.211776691367711795e-01
-1.180394819393712352e-01
3.006654007743290724e-01
2.404559881331633786e-01
-2.315080019342269368e-01
1.713005370086743140e-01
-2.304447868218961193e-01
5.656584088051421766e-01
2.366434762513426604e-02
8.263508122602898631e-02
-7.275789409448307765e-02
1.312280290519758467e-02
2.449534854324368904e-01
-2.095202552405930896e-01
-3.897314001950991647e-01
-4.231199028622335823e-02
1.009460972623541924e-01
-3.695480383065700147e-01
1.505478921643630709e-02
-9.041845197925718614e-02
1.460921895890180955e-01
-2.760083245997667634e-01
2.010855621883441968e-01
2.387118741561151253e-02
8.243900904141310271e-02
5.765310831162505367e-02
3.229389931160627225e-01
-2.495097400653967790e-01
3.214561840809713744e-01
4.226100263607678736e-02
-5.429550977644206217e-02
-8.789516770864125306e-02
6.370708664975612001e-02
1.403194140021721270e-01
3.068099857577971656e-01
