-4.436700032947329952e-02
1.508794758818210735e-01
-9.869631119059121827e-02
3.820765976298170497e-01
-3.418181788903315033e-01
4.575470190637545009e-01
-6.066529225680165061e-01
2.383331267913704199e-01
-1.832424585332113609e-01
7.481622907391244359e-02
1.813830856097786715e-02
-2.037436649119801768e-01
6.393046843876182272e-01
-1.099702535915588308e+00
8.195863247771451032e-01
-1.641192027071849968e-01
6.683980878868200914e-02
6.789069733994489431e-01
5.236401065920582437e-02
-8.788017105195902179e-01
-1.257038043904807445e+00
6.556100152586730179e-03
-5.467716426152009479e-01
-7.238690744247605613e-01
-1.477873314362052326e-01
8.141640188138954404e-02
1.843963688595179340e-02
-1.337779647290131768e+00
9.985861152653605077e-02
5.874290500982679020e-02
2.878442285725493210e-01
-4.632780055991805868e-02
-3.415275178318973870e-01
-1.133114430302477882e-01
-5.346869848998118124e-01
9.252824229095001074e-02
-2.314226171692816414e-01
-2.701422937448830774e-01
3.537935137720027434e-01
-1.904040144161265879e-01
4.098576376436021129e-01
-5.998073280673033025e-01
1.764066320486089856e-01
7.625353213204264513e-01
2.046426271941116926e-01
-6.806106617745186216e-02
-1.955654577652424231e-01
4.759119324303501264e-01
-2.812025850558499407e-01
-2.337665027282522234e-01
-3.599789091732828045e-02
1.493387245730487534e-01
3.167877187211280421e-01
7.604731841717282670e-02
6.167795259199360114e-01
-2.855535441413168396e-01
5.492723101201142377e-01
7.285573048084452719e-01
-4.857601906288006033e-01
-1.074615206176727233e-01
-1.135030111216771692e-01
6.033279940670539521e-01
-8.702534953086824010e-02
-1.519937743148782605e-01
-7.907466494058909556e-02
-7.812896868946100914e-02
-6.066924583397668158e-01
3.661559335833459716e-01
2.598630787889179006e-01
-5.000996869740396145e-01
-4.527899296950568808e-01
6.702074020414937605e-01
7.347536267041168689e-02
9.814575024966822880e-01
1.687470361894478355e-01
2.088770415397265823e-01
4.780709859959757502e-01
1.715244252474040776e-02
-1.124978910634315543e-01
-3.636343737002565302e-01
-6.403836020956329977e-02
-9.607535192968018611e-01
-2.128474732027632599e-01
-5.327701293932672888e-01
1.958705185565126905e-01
2.097823527044774539e-01
-2.501224530555550274e-01
4.114277939112925275e-01
-3.293843801148030326e-01
2.242637677969258891e-01
-1.307300986939199383e-01
5.807598916841546499e-01
1.265738834748496300e-01
-1.883516963388937038e-01
-5.168050148014137202e-01
-2.272515784031847730e-02
-1.219806243309049937e-01
-3.889682991565318049e-01
1.098989095285794360e+00
9.012108986889810769e-03
-1.705338664940324822e+00
6.172214550690213741e-02
-1.046330989623476260e+00
-2.577792932242486401e-01
4.453110950702082738e-01
-2.362214202840838551e-01
2.583057120572610499e-01
-2.221291509167634404e-01
-1.942460430422780771e-01
5.688112661251469859e-01
2.210728002368340939e-01
4.569234358060683676e-02
6.041119906584656585e-01
-2.199653224862150314e-01
1.006245123054706619e-01
6.506484538954674379e-01
-8.855764856638845273e-02
-6.663603792428979267e-01
-1.623078863055218424e-01
5.342313395564847189e-01
2.925115990993271131e-02
-4.010246088099977402e-01
-1.209972099622185771e-01
4.227463698430287686e-01
-3.036025815132986083e-01
2.112125094370810308e-01
1.080326389457651748e-02
-3.702882409062666080e-01
-4.028465996740823729e-01
3.719481059899527597e-01
-2.994113788483940275e-02
-1.797950842283462247e-01
2.910354585061777355e-01
-8.906018294479248754e-01
1.929875777785192148e-01
6.535735947749826691e-01
-7.869064672651250314e-01
-2.057493284137570377e-01
3.563613124970017587e-01
1.191339915966798946e-01
-1.362921988253395222e-01
1.296096953161454124e-01
-7.151021424073240595e-01
-3.506418252880743602e-01
-6.302356525665799847e-01
-3.207905639592604219e-01
-2.857996155887884693e-02
-3.533560241901792520e-02
3.513723330483382590e-01
-3.957287746396051520e-01
9.596401783455432710e-02
-7.317588016315661470e-01
-4.473684383635562201e-01
4.919700995261818699e-01
-4.477280101665848666e-01
-5.608802001377062307e-01
2.045390282402268500e-01
1.211900197419139680e+00
-4.994692209310872544e-01
-5.695952581835180828e-01
-1.817807716083545966e-01
1.867533330448598039e-02
5.904455300376346694e-01
-5.752110735323554547e-01
-3.793724717142149538e-01
9.766737327790793177e-01
-1.373382043794788010e-01
2.226382104163844300e-01
4.784402994451190244e-02
3.327553458717542600e-01
4.040406712923557686e-01
-2.281453281936174915e-01
1.671226806937312070e-01
-3.849975595796441552e-01
4.750913801723805063e-02
1.248266183288987002e-01
1.671381914328651935e-02
3.182466366076697195e-02
-9.840417179721938634e-01
-3.914769569449100262e-01
1.966764857532951050e-01
4.860560730372114335e-01
2.153624982238383501e-02
-7.865009778097573623e-01
7.223608058614753302e-01
-4.377208400983393366e-01
-4.334329472899474678e-01
-4.543904187146489138e-01
1.017535499366501034e-01
3.208067456210286217e-01
4.381172039672407426e-01
-5.176311805316696768e-02
-2.554244274091614919e-01
1.205660094940648047e-01
1.007583719941343992e-01
7.835610519950744202e-01
-1.283921124365710043e-01
-6.300756204019335449e-01
-4.853232679771424252e-01
-5.927010151275931005e-01
-2.079263657977567514e-01
-4.668990283934281171e-01
-2.011455424426715488e-01
3.228458115886714275e-01
3.506350458368067136e-01
5.963725536407975536e-01
-1.824470381367847560e-01
-5.041089394266884405e-01
-8.052505805398840755e-01
-1.714245744821757400e-01
-1.029202860227695915e+00
-1.467672166655512034e-01
4.892240090042243583e-04
1.824485896693469056e-01
-5.903227670179214126e-01
-2.557070187863635380e-01
-1.207981946985294819e+00
-1.743275274677509867e-01
4.015742449692524807e-01
-6.329018448715566514e-01
1.525931243373339075e-01
-1.622987733545471767e-01
1.119945898791198324e+00
-1.955541185850440677e-01
9.166042940945823281e-02
-4.518437052489296946e-01
-9.287001026908249524e-03
-5.684111883712586466e-02
4.668804883654000815e-01
2.892986787718401787e-01
-4.404887382621513470e-01
-4.657967909179484001e-01
3.585408693915600464e-01
2.873797317942017315e-01
2.207054288611680071e-01
-2.259978751905294403e-01
4.133616899607103212e-01
-3.940279044496333705e-01
9.159063653867219323e-03
1.637999806182573459e-01
-7.930527744715476501e-02
4.742743717652625479e-02
3.254281382291631664e-01
1.629721092168379681e-01
8.201326369576530939e-02
2.967810230582758058e-01
2.676044471745817610e-01
5.528942749009493340e-01
-2.709505876531933533e-01
2.101735978651909365e-01
-5.940358911015047871e-01
-1.989365847096585260e-01
6.784478830500795254e-01
4.854812396776609917e-01
8.494614258099124626e-01
-4.321064686604142446e-01
1.890134281144259798e-01
5.653944790467795301e-01
6.942293173499695103e-01
2.727891662144593665e-01
5.435482173339122314e-01
2.958754102380461992e-01
-4.170020947489044838e-01
4.542717023371005691e-01
3.180943954526644912e-01
