3.035467347754015055e-01
2.566218069022826453e-01
1.549299330252250084e-01
7.485452216815297044e-01
-2.186996930478157103e-02
1.217925564944630334e+00
-1.803269124640338728e-01
-1.573696549501101272e-01
-3.563378136542158514e-01
3.083301111213415102e-01
-3.333205632547830977e-01
-6.918619376422064926e-01
2.524745722839704665e-01
-3.766043080532245901e-01
-5.160680450562413202e-02
1.592838508523555796e-01
-7.403164452735492285e-01
6.604800293645913811e-01
3.033621202551889939e-01
-2.672864437958472061e-03
-4.910566905345337685e-01
-3.840249263209060127e-01
7.970199066952007305e-01
2.505706692618021592e-01
-5.015933875502056605e-01
-5.284220199089479930e-01
1.132617588206083215e-01
1.766842743063475607e-01
-6.414394753410914696e-01
-3.159852657775373552e-02
1.600244066668413123e-02
-1.848579716174313103e-01
-1.808384635522605755e-01
-4.913601711399410155e-01
2.423036930945875467e-01
-3.769033373567522438e-01
3.349658487740172497e-01
-1.584244780420495380e-01
1.494345769671168722e-01
-2.037488872822180649e-02
-1.493991481330494975e-02
-4.785497587332834812e-01
1.897424268685027338e-02
-6.704535302429783794e-01
-1.008390147888983956e-01
-2.457677448941826270e-01
-6.281675957152663692e-01
-2.257755952158393975e-01
6.548943283531008519e-02
-1.145427865974666670e-01
-2.656877843394319649e-01
-1.817226779534265313e-01
5.894800084855729150e-01
1.434038247476997485e-01
-3.539478833631270333e-02
-5.366334000479552335e-01
-3.027324526909142000e-01
8.569929802552183062e-01
-2.401819787622840319e-01
4.973240717836052704e-01
2.204616533357860453e-01
2.411259472109339164e-01
-6.152136866462609710e-01
-9.544942705654263504e-02
-2.875141211741561453e-01
-6.104095796750375058e-01
-3.323792789828721728e-01
-2.252578669897968289e-01
-4.459432653530182589e-01
7.210759607249751513e-01
6.302454467783576986e-01
-2.604057674155945135e-01
-1.932217288457579729e-01
-5.248510745710301961e-01
3.870678834990670669e-01
-4.341667006264000039e-01
-2.958456799078713617e-01
1.687760632382178105e-01
-5.951275400536417681e-01
-9.783310064833955488e-02
7.225470301817843444e-01
2.053671397806779431e-01
-2.635820124327579728e-01
-2.080456234279919603e-01
-8.990539462796018899e-01
1.399986378217052130e-01
4.820924337164493312e-01
2.738365979407242357e-04
-2.692228780655495091e-02
2.159699625045731208e-01
7.991265950898381876e-01
5.012306061705902316e-01
-5.067043927380741053e-01
-4.729237519904118392e-02
5.707628960431719856e-01
1.870943817034997902e-01
1.168989032163631342e-01
-1.213900895987681944e-01
9.386394403134662445e-02
2.309059870958019012e-01
-6.693643430939059946e-02
4.111922386529957563e-01
2.821088274514320093e-01
1.267643162931152423e-01
-5.767874098583465337e-01
-5.405584341041340668e-01
-2.372436371968356106e-01
-1.558594196218697839e-02
3.699262936361187304e-01
-1.515192967669207191e-01
2.451296815557336278e-02
1.073620013230887071e-01
7.340939617879667090e-01
-1.509296051975465291e-01
-1.619741822511582274e-01
-6.615107563396858958e-02
4.672707750555908368e-01
2.281605528086096679e-01
4.388407841472314469e-02
3.023963879560635504e-01
2.896095736980769386e-03
2.233934923667282302e-01
3.157673923298409679e-01
9.017429407691904264e-02
1.492294883637750869e-01
-3.239936997314414313e-01
-1.933987499753092310e-01
-7.844113285765674792e-02
-2.775341697822437670e-01
-2.087672518335885741e-01
1.869764621654678993e-01
-5.039808201205399352e-02
7.608650254604872876e-01
4.367203587533773079e-02
1.077770356196267043e-01
-3.883539771466354429e-01
-3.037847053771236538e-02
4.116025701856892982e-02
-2.053436047100523631e-03
-5.647453156546970998e-01
-5.521209684367269777e-01
3.111319025196150334e-01
4.035129404257548069e-01
-1.282343750585941411e-01
-5.749279805742001370e-01
3.996585867585015217e-01
3.921656636293823217e-01
1.623850823471175708e-01
6.813695307296144948e-03
-3.519562732769485613e-01
3.563431676167841955e-01
-2.188764561019622135e-01
1.226578943625570572e-01
4.174722800105887255e-01
-2.348150470608407758e-01
1.566496212405174282e-01
-4.562886179247527263e-01
3.309451120132444468e-01
-5.225963164009942430e-01
1.825313484062144054e-01
-3.985752794829492407e-01
-3.225649179355924434e-01
6.151254779024062369e-01
7.557237664109471564e-02
-2.661180501423714428e-01
2.544313032545965081e-01
-2.254173738430773066e-01
-2.162475787015856188e-01
-8.767680962965290759e-02
3.768559370914016382e-01
2.878552621767689890e-01
3.681933573385524905e-02
1.982321510967451905e-01
-1.155437427413800316e-01
-2.142340965293457744e-01
-9.099780883399094522e-02
-3.181123955429482342e-01
2.062120178239493229e-01
-4.800016783615884686e-03
1.821099882190588271e-01
-3.442183961895450839e-01
-2.123183346813571071e-01
1.411040981014430595e-01
-3.387807718421363967e-01
-5.421253723367267519e-01
-3.134177776241469093e-01
-3.627045572418919894e-01
2.367126494638815970e-02
-6.747227757319806951e-01
-2.486703159809759353e-02
6.343478804229337742e-01
2.874886932337296086e-01
6.852666221178590478e-01
-4.269479727180678919e-01
-6.629559361721095723e-01
4.512682010997291771e-02
4.897667300287648073e-01
-5.570901556471030691e-02
-2.946616795821072055e-02
1.052444407080778133e-01
1.209526885919037231e-01
5.445218667529647116e-02
-2.563559760351308281e-01
2.123392426070279393e-01
7.068156880000832365e-02
6.514673140812057284e-01
-1.810683607313351706e-01
3.128332786409738775e-01
9.164153638048622152e-02
4.878090215994691503e-01
-2.904827085478235427e-01
-1.133437348006482992e-02
1.292205438303138665e-01
1.283267230935133119e-01
3.597732348654170131e-01
-1.705955718207691207e-02
3.493527686090400763e-01
-2.403564287349396755e-01
3.564414170032404461e-01
-3.678376239869830533e-01
2.960887352296335817e-01
1.330603228147407002e-01
-7.716746416254360863e-03
2.790071169070305057e-01
3.309186219539135276e-01
-1.048779509803030446e-01
-8.224110850614272383e-01
-4.563099684200177530e-01
3.596451347180635305e-01
-6.462718836529988964e-02
9.324761155982931593e-02
-2.112193801554900774e-01
5.700850798277744547e-01
6.293800739822927870e-01
7.905221895903795370e-02
-3.620643047408075854e-01
1.873138128160830029e-01
4.899374294739881897e-02
5.090023952338833535e-01
1.114972815429256525e-01
-2.916460129366023057e-01
-2.016659896576392386e-01
-7.229277630636514740e-01
6.637135919357779468e-01
5.761922842349797014e-01
-5.573091133484148196e-02
8.037410834559483019e-01
4.040749761737664203e-01
2.347711994511494094e-01
4.290494179363355531e-01
1.017923264974839315e-01
-8.839689434479446328e-01
7.314453503298544712e-01
-8.063932490998343416e-02
-7.739638978617402465e-01
1.928515475547564195e-01
3.185273456698572980e-01
5.553150184452133598e-01
-1.128106737663170100e-01
8.233202543099843451e-02
-3.207278940274269075e-01
3.282514341294758276e-01
6.007561946849909740e-01
6.055394718908815310e-01
1.136896214652236003e-02
